MTP
version = 1.1.0
potential_name = MTP1m
scaling = 8.402777777777782e-01
species_count = 3
potential_tag = 
radial_basis_type = RBChebyshev
	min_dist = 1.000000000000000e+00
	max_dist = 5.000000000000000e+00
	radial_basis_size = 8
	radial_funcs_count = 3
	radial_coeffs
		0-0
			{-1.263541916726783e-02, 6.473975827961614e-02, -3.985248652812289e-02, 4.033541938976446e-02, -1.934764491183929e-02, 1.548455156924814e-02, -2.939312327753213e-03, 2.208148843410129e-03}
			{2.789011745263508e-02, -1.376281147921543e-02, 1.315946991791419e-02, -7.967276405389963e-03, 4.630712312294011e-03, -1.462764113517958e-05, 2.688633907844587e-03, 3.356746689597963e-04}
			{1.408559371435066e-01, -2.538618498446628e-01, 1.828759855023801e-01, -1.765108015878755e-01, 9.406323439852599e-02, -6.085498067406244e-02, 2.320357223553267e-02, -8.031007638322112e-03}
		0-1
			{3.255805013523370e-02, 2.264220755650733e-02, 4.257030875575415e-02, -9.647339427258352e-03, 5.275211660903148e-02, -2.004492635206166e-02, 2.804214239896052e-02, -4.872167287084256e-03}
			{2.667250069114748e-01, -9.814973417323770e-02, 3.662642285570587e-01, -7.397130293065307e-02, 1.894105920966425e-01, -1.745489618120122e-02, 5.741554929306698e-02, 6.743292611458534e-03}
			{4.115782418246955e-01, 1.300432905309548e-01, 3.721201992631231e-01, 2.905801735837851e-01, -3.934113912162471e-02, 2.490693176587375e-01, -6.580253560555589e-02, 6.950622442257608e-02}
		0-2
			{-1.902128977621559e-02, 6.165199374570276e-03, -3.388852990271060e-02, 3.033465106221633e-03, -1.701372213360604e-02, -6.816291303223028e-04, -6.095572383860545e-03, 7.887796903144271e-04}
			{-2.893535988859275e-02, -4.474468253880945e-02, -3.054452848657948e-02, -2.555152825312581e-02, -1.288576664358490e-02, -1.214035784902422e-02, -5.313356102293877e-03, -1.321061050628909e-03}
			{9.188380976111033e-03, 1.722205893565589e-01, 4.988833363735515e-02, 7.133156173545339e-02, 2.182194581697405e-02, 2.090344957557692e-02, 5.445551696218365e-03, 9.185293235431832e-04}
		1-0
			{-6.550053861791538e-02, 6.665397956036971e-02, -1.021134867603355e-01, 5.105609108197613e-02, -5.537287999994021e-02, 1.924918790752826e-02, -1.294756508006840e-02, 2.743031553461152e-03}
			{2.817237344854863e-01, -4.651834593057733e-01, 3.924818824443824e-01, -2.751075233610231e-01, 1.635735733646398e-01, -8.244264688924395e-02, 3.074070677286108e-02, -8.220727618594541e-03}
			{-7.865856562298268e-02, 2.393326898415756e-01, -3.834351430505803e-02, 3.561171794523130e-02, 7.260878970903514e-02, -2.855160923574496e-02, 4.139917127302651e-02, -6.010261231169325e-03}
		1-1
			{3.925687780324182e-02, -5.603531323133110e-02, 6.522820915677666e-02, 1.399423251121777e-02, -1.194652032633950e-02, 5.016337845997432e-02, -2.421209903363814e-02, 2.640487306345883e-02}
			{2.294192727968652e-01, 2.986791569400397e-02, 1.267244079020453e-01, 1.656112540497946e-01, -4.791902880805764e-02, 1.784723030583525e-01, -3.916917152792376e-02, 4.911426742035436e-02}
			{-2.922107409836625e-02, -8.887549231676189e-02, 9.051612604269155e-02, -1.499647684620115e-01, 8.370407382109928e-02, -7.514394424760139e-02, 1.668417890303610e-02, -1.310540386043208e-02}
		1-2
			{-2.126885985472120e-02, -1.834725458108732e-02, -1.741324245620633e-02, -1.775256941237169e-02, 4.710990005361652e-03, -1.434676828837410e-02, 3.598348953902551e-03, -2.610721921828335e-03}
			{-1.120158782485477e-02, -7.224441633587159e-02, 1.829653745453431e-02, -5.684554369966964e-02, 1.429947999506859e-02, -1.955676667243085e-02, 1.232840966334451e-03, 1.029347621770812e-03}
			{3.468672427732027e-02, 1.533023899314874e-02, 3.491817966887062e-02, -8.060635352731950e-03, 4.451554884266910e-02, -1.261009268745862e-02, 2.365882878035888e-02, -1.852081075692814e-02}
		2-0
			{-1.744139156785073e-03, -2.079928921607546e-02, 8.919471960108470e-03, -1.462188973265768e-02, 3.930482311356478e-03, -6.741185774447828e-03, 1.956272020546020e-03, -2.490899996393123e-03}
			{-1.663312914152770e-02, -1.430742083241430e-02, -4.836743780874482e-03, -1.176829440612323e-02, 4.136391312879542e-04, -4.164630263430423e-03, 2.809340124477472e-04, -1.661808149773628e-03}
			{-7.780544781142003e-02, -1.673052134700025e-01, -7.782318602683770e-02, -6.265935974333925e-02, -3.863436623905987e-02, -2.439178561506436e-02, -8.044345922310523e-03, -5.086353872082451e-03}
		2-1
			{-4.637182134178226e-02, -5.717762080140043e-02, -3.890468141873037e-02, -2.542654822593859e-02, -3.444788489039428e-02, 3.008302629942244e-04, -1.516589841559562e-02, 2.914237953010922e-03}
			{-5.510650138051253e-02, -1.224016024507298e-01, 1.475535706932414e-02, -7.940984244481482e-02, 1.958001213479941e-02, -2.417811540162360e-02, 2.993893687575749e-03, -1.438011778620332e-04}
			{-1.826512484751982e-01, 7.050561989761234e-02, -2.187452677675005e-01, 1.262651460798599e-01, -1.670496260759609e-01, 4.841540024689289e-02, -5.172227860851069e-02, 3.295670437834725e-02}
		2-2
			{-3.114157862760674e-01, 6.175854438709721e-01, -5.005927589074401e-01, 3.728386956498644e-01, -2.158448858904164e-01, 1.245162842594632e-01, -4.647285062899902e-02, 1.700172025969936e-02}
			{1.962681746652425e-02, 3.915670485168769e-02, -1.410080855200580e-02, 3.103205432727851e-02, 2.405011824455722e-03, 1.185054634339354e-02, 1.766995025451491e-03, 1.844908726076913e-03}
			{7.878095464862043e-03, -3.753925961661214e-03, -3.544856642650707e-03, -3.678259667623794e-02, 3.052701327905216e-02, -2.427013901003032e-02, 8.022234508763220e-03, -4.095021869413431e-03}
alpha_moments_count = 84
alpha_index_basic_count = 46
alpha_index_basic = {{0, 0, 0, 0}, {0, 1, 0, 0}, {0, 0, 1, 0}, {0, 0, 0, 1}, {0, 2, 0, 0}, {0, 1, 1, 0}, {0, 1, 0, 1}, {0, 0, 2, 0}, {0, 0, 1, 1}, {0, 0, 0, 2}, {0, 3, 0, 0}, {0, 2, 1, 0}, {0, 2, 0, 1}, {0, 1, 2, 0}, {0, 1, 1, 1}, {0, 1, 0, 2}, {0, 0, 3, 0}, {0, 0, 2, 1}, {0, 0, 1, 2}, {0, 0, 0, 3}, {0, 4, 0, 0}, {0, 3, 1, 0}, {0, 3, 0, 1}, {0, 2, 2, 0}, {0, 2, 1, 1}, {0, 2, 0, 2}, {0, 1, 3, 0}, {0, 1, 2, 1}, {0, 1, 1, 2}, {0, 1, 0, 3}, {0, 0, 4, 0}, {0, 0, 3, 1}, {0, 0, 2, 2}, {0, 0, 1, 3}, {0, 0, 0, 4}, {1, 0, 0, 0}, {1, 1, 0, 0}, {1, 0, 1, 0}, {1, 0, 0, 1}, {1, 2, 0, 0}, {1, 1, 1, 0}, {1, 1, 0, 1}, {1, 0, 2, 0}, {1, 0, 1, 1}, {1, 0, 0, 2}, {2, 0, 0, 0}}
alpha_index_times_count = 117
alpha_index_times = {{0, 0, 1, 46}, {1, 1, 1, 47}, {2, 2, 1, 47}, {3, 3, 1, 47}, {1, 4, 1, 48}, {2, 5, 1, 48}, {3, 6, 1, 48}, {1, 5, 1, 49}, {2, 7, 1, 49}, {3, 8, 1, 49}, {1, 6, 1, 50}, {2, 8, 1, 50}, {3, 9, 1, 50}, {4, 4, 1, 51}, {5, 5, 1, 51}, {6, 6, 1, 51}, {4, 5, 1, 52}, {5, 7, 1, 52}, {6, 8, 1, 52}, {4, 6, 1, 53}, {5, 8, 1, 53}, {6, 9, 1, 53}, {5, 5, 1, 54}, {7, 7, 1, 54}, {8, 8, 1, 54}, {5, 6, 1, 55}, {7, 8, 1, 55}, {8, 9, 1, 55}, {6, 6, 1, 56}, {8, 8, 1, 56}, {9, 9, 1, 56}, {4, 4, 1, 57}, {5, 5, 2, 57}, {6, 6, 2, 57}, {7, 7, 1, 57}, {8, 8, 2, 57}, {9, 9, 1, 57}, {4, 10, 1, 58}, {5, 11, 2, 58}, {6, 12, 2, 58}, {7, 13, 1, 58}, {8, 14, 2, 58}, {9, 15, 1, 58}, {4, 11, 1, 59}, {5, 13, 2, 59}, {6, 14, 2, 59}, {7, 16, 1, 59}, {8, 17, 2, 59}, {9, 18, 1, 59}, {4, 12, 1, 60}, {5, 14, 2, 60}, {6, 15, 2, 60}, {7, 17, 1, 60}, {8, 18, 2, 60}, {9, 19, 1, 60}, {10, 10, 1, 61}, {11, 11, 3, 61}, {12, 12, 3, 61}, {13, 13, 3, 61}, {14, 14, 6, 61}, {15, 15, 3, 61}, {16, 16, 1, 61}, {17, 17, 3, 61}, {18, 18, 3, 61}, {19, 19, 1, 61}, {20, 20, 1, 62}, {21, 21, 4, 62}, {22, 22, 4, 62}, {23, 23, 6, 62}, {24, 24, 12, 62}, {25, 25, 6, 62}, {26, 26, 4, 62}, {27, 27, 12, 62}, {28, 28, 12, 62}, {29, 29, 4, 62}, {30, 30, 1, 62}, {31, 31, 4, 62}, {32, 32, 6, 62}, {33, 33, 4, 62}, {34, 34, 1, 62}, {0, 35, 1, 63}, {1, 36, 1, 64}, {2, 37, 1, 64}, {3, 38, 1, 64}, {4, 39, 1, 65}, {5, 40, 2, 65}, {6, 41, 2, 65}, {7, 42, 1, 65}, {8, 43, 2, 65}, {9, 44, 1, 65}, {0, 45, 1, 66}, {35, 35, 1, 67}, {0, 46, 1, 68}, {0, 47, 1, 69}, {0, 57, 1, 70}, {0, 61, 1, 71}, {1, 48, 1, 72}, {2, 49, 1, 72}, {3, 50, 1, 72}, {1, 58, 1, 73}, {2, 59, 1, 73}, {3, 60, 1, 73}, {4, 51, 1, 74}, {5, 52, 2, 74}, {6, 53, 2, 74}, {7, 54, 1, 74}, {8, 55, 2, 74}, {9, 56, 1, 74}, {0, 63, 1, 75}, {0, 64, 1, 76}, {35, 47, 1, 77}, {47, 47, 1, 78}, {0, 68, 1, 79}, {0, 69, 1, 80}, {0, 70, 1, 81}, {0, 72, 1, 82}, {0, 75, 1, 83}}
alpha_scalar_moments = 29
alpha_moment_mapping = {0, 35, 45, 46, 47, 57, 61, 62, 63, 64, 65, 66, 67, 68, 69, 70, 71, 72, 73, 74, 75, 76, 77, 79, 80, 81, 82, 78, 83}
species_coeffs = {-5.556918948865920e+00, -1.680761446561369e+01, -4.201903616403420e+00}
moment_coeffs = {-1.811117821685823e+00, 2.767509111547247e+00, -2.076880382292824e+00, -1.494065946239558e+00, 2.439125962331011e+00, 4.578109383663536e+00, 4.099173539880188e+00, -6.957042985878134e-01, -5.873867599392920e+00, -6.588590482311413e-01, 4.574911770654380e+00, 1.726282972537301e+00, 5.679219478251130e+00, 2.266726321286917e+00, -4.680207402672590e+00, -1.057432170559266e+00, 5.193951975878909e+00, 8.837933047542389e+00, 1.168226089794944e+01, -8.375295741876926e+00, -2.947910339985280e+00, 1.888063426330327e+00, -8.217665455334570e+00, 2.031233915334377e+00, 1.475075571597220e+00, -3.087189118312542e+00, 6.445876265699317e+00, -6.017604105447985e+00, -6.671211046234836e-01}