MTP
version = 1.1.0
potential_name = MTP1m
scaling = 6.365740740740744e-01
species_count = 3
potential_tag = 
radial_basis_type = RBChebyshev
	min_dist = 1.000000000000000e+00
	max_dist = 6.000000000000000e+00
	radial_basis_size = 8
	radial_funcs_count = 3
	radial_coeffs
		0-0
			{-2.378851871911250e-02, 7.139141205810762e-02, -5.419381181243593e-02, 4.711103519527542e-02, -2.618810879951714e-02, 1.895124978029200e-02, -4.482554813498604e-03, 3.162738236368593e-03}
			{3.150636535935415e-02, -3.525636928994356e-02, 2.360428360838336e-02, -2.103817204313654e-02, 9.976598288774993e-03, -5.763615466346949e-03, 3.900220942317104e-03, -8.192651169869390e-04}
			{1.412671782937316e-01, -2.482871760088722e-01, 1.884989885997415e-01, -1.749437467772910e-01, 9.601363193555401e-02, -6.530430987113256e-02, 2.379424879914621e-02, -1.055193995061126e-02}
		0-1
			{3.707298571643434e-02, 7.306418622628400e-03, 3.550388021470809e-02, -3.498340997357844e-03, 3.237513169790595e-02, -8.798183073788176e-03, 1.957268159794392e-02, -5.210483162795014e-04}
			{2.717366990693490e-01, -9.731168730280972e-02, 3.691789051615910e-01, -6.554537009442034e-02, 1.822949848478234e-01, -8.494124029842520e-03, 5.413591539487819e-02, 9.983493523976671e-03}
			{4.184241949255961e-01, 1.312678890228924e-01, 3.736469301758810e-01, 2.979641036282974e-01, -4.196772718065309e-02, 2.473668222798974e-01, -6.066678926845090e-02, 6.523449637014128e-02}
		0-2
			{-2.324172758393011e-02, -5.344352676559565e-03, -3.909326139739776e-02, -5.208203521678261e-03, -1.984765902063297e-02, -5.402030967312740e-03, -7.060179411629620e-03, -4.790335714614873e-04}
			{-2.770330216549048e-02, -4.415785284850006e-02, -2.812571456696770e-02, -2.641717213128164e-02, -1.113117406705977e-02, -1.322735733828908e-02, -4.625210004206705e-03, -1.935104545425734e-03}
			{6.284263773259249e-03, 1.728004309638672e-01, 4.130962333783032e-02, 8.012705678920355e-02, 1.650443813612348e-02, 2.743299432421464e-02, 4.670956230066884e-03, 2.531116115598880e-03}
		1-0
			{-6.056448813173399e-02, 6.593828244251181e-02, -1.008857215067460e-01, 5.469749520987022e-02, -5.961934016230101e-02, 2.391783803862296e-02, -1.515904508024871e-02, 4.250589401083125e-03}
			{2.762667561734164e-01, -4.634409897530512e-01, 3.868682055231453e-01, -2.737856076786129e-01, 1.619698974292054e-01, -8.277007528408283e-02, 3.065050352866661e-02, -8.707620774234341e-03}
			{-9.854857611651173e-02, 2.450318941510561e-01, -5.386407557976793e-02, 3.232106384292169e-02, 7.818401901574054e-02, -3.401914323675233e-02, 4.586402625027939e-02, -7.251521609901741e-03}
		1-1
			{4.214296138710354e-02, -5.108953050535488e-02, 6.383187252389531e-02, 6.380415576447986e-03, -8.964427122004150e-03, 5.283051021065154e-02, -2.421913674487448e-02, 3.144014600097766e-02}
			{2.219436513210339e-01, 2.533618603347063e-02, 1.220921558803344e-01, 1.618166532549538e-01, -4.957602547623224e-02, 1.732538690192128e-01, -3.695623948981538e-02, 4.731795613920616e-02}
			{-3.211166295915472e-02, -9.027157939075711e-02, 9.365870817745267e-02, -1.571831757842389e-01, 8.926086622127229e-02, -8.077741204248776e-02, 1.792772614091506e-02, -1.306775777781214e-02}
		1-2
			{-2.645988161631121e-02, 4.614991633083701e-03, -2.188942587302730e-02, -3.256358508150322e-03, 2.215149610297007e-03, -8.357774885192083e-03, 3.374514547633849e-03, -2.141562368717787e-03}
			{-9.073779200683365e-03, -8.996163266152961e-02, 2.185150476037171e-02, -6.499980121745735e-02, 1.716799678900405e-02, -2.313121957357260e-02, 2.503925754608505e-03, 1.001904775680937e-03}
			{5.188276933261732e-02, 7.609005479597523e-03, 5.700148210659087e-02, -1.668097185150864e-02, 5.052543842257177e-02, -2.323227020239059e-02, 2.735463655085214e-02, -2.403734137108133e-02}
		2-0
			{-3.084034580943266e-03, -2.824122326978458e-02, 6.671163870087335e-03, -1.919106562038050e-02, 3.038564159856758e-03, -8.460427587361511e-03, 1.610989131702421e-03, -3.062168817654913e-03}
			{-1.755960515222974e-02, -1.916226850111896e-02, -5.380562258117150e-03, -1.504122261053242e-02, 2.191756421224542e-04, -5.513565328028654e-03, 2.602260216001388e-04, -2.127614712912312e-03}
			{-6.255845721550644e-02, -1.539822741828909e-01, -6.327364530497817e-02, -5.770818474787676e-02, -3.091462006826178e-02, -2.377138844355237e-02, -6.065918810901928e-03, -4.635568177784589e-03}
		2-1
			{-3.565306048079638e-02, -7.749585147414612e-02, -2.184525018185351e-02, -4.731211879552525e-02, -2.748557957995583e-02, -1.093374939906273e-02, -1.259214479148411e-02, -2.960162302398508e-03}
			{-4.496009927126132e-02, -1.442150326965184e-01, 3.116354094948618e-02, -1.017194097240190e-01, 2.743320826629517e-02, -3.665783991282033e-02, 6.408502009319054e-03, -4.863596292477002e-03}
			{-1.569896966539535e-01, 6.503285210876388e-02, -2.061007075727585e-01, 1.219374032232089e-01, -1.537342699275028e-01, 5.259109067738237e-02, -4.972985484866008e-02, 3.911900304382211e-02}
		2-2
			{-3.104899044185840e-01, 6.187477571032111e-01, -4.977838783589968e-01, 3.733928494634674e-01, -2.126075887409125e-01, 1.233153456841434e-01, -4.467312304658161e-02, 1.654504512453361e-02}
			{2.074850063138145e-02, 4.440669478985541e-02, -1.152398912545830e-02, 3.538674098008881e-02, 2.100689243306725e-03, 1.323530702655410e-02, 1.632643810046073e-03, 2.171734797745972e-03}
			{-1.248080083037231e-02, -1.589626046604218e-03, -1.804415020481750e-02, -3.515741390882323e-02, 2.119981761859294e-02, -2.435162430201965e-02, 4.884504124212064e-03, -3.970040194142261e-03}
alpha_moments_count = 84
alpha_index_basic_count = 46
alpha_index_basic = {{0, 0, 0, 0}, {0, 1, 0, 0}, {0, 0, 1, 0}, {0, 0, 0, 1}, {0, 2, 0, 0}, {0, 1, 1, 0}, {0, 1, 0, 1}, {0, 0, 2, 0}, {0, 0, 1, 1}, {0, 0, 0, 2}, {0, 3, 0, 0}, {0, 2, 1, 0}, {0, 2, 0, 1}, {0, 1, 2, 0}, {0, 1, 1, 1}, {0, 1, 0, 2}, {0, 0, 3, 0}, {0, 0, 2, 1}, {0, 0, 1, 2}, {0, 0, 0, 3}, {0, 4, 0, 0}, {0, 3, 1, 0}, {0, 3, 0, 1}, {0, 2, 2, 0}, {0, 2, 1, 1}, {0, 2, 0, 2}, {0, 1, 3, 0}, {0, 1, 2, 1}, {0, 1, 1, 2}, {0, 1, 0, 3}, {0, 0, 4, 0}, {0, 0, 3, 1}, {0, 0, 2, 2}, {0, 0, 1, 3}, {0, 0, 0, 4}, {1, 0, 0, 0}, {1, 1, 0, 0}, {1, 0, 1, 0}, {1, 0, 0, 1}, {1, 2, 0, 0}, {1, 1, 1, 0}, {1, 1, 0, 1}, {1, 0, 2, 0}, {1, 0, 1, 1}, {1, 0, 0, 2}, {2, 0, 0, 0}}
alpha_index_times_count = 117
alpha_index_times = {{0, 0, 1, 46}, {1, 1, 1, 47}, {2, 2, 1, 47}, {3, 3, 1, 47}, {1, 4, 1, 48}, {2, 5, 1, 48}, {3, 6, 1, 48}, {1, 5, 1, 49}, {2, 7, 1, 49}, {3, 8, 1, 49}, {1, 6, 1, 50}, {2, 8, 1, 50}, {3, 9, 1, 50}, {4, 4, 1, 51}, {5, 5, 1, 51}, {6, 6, 1, 51}, {4, 5, 1, 52}, {5, 7, 1, 52}, {6, 8, 1, 52}, {4, 6, 1, 53}, {5, 8, 1, 53}, {6, 9, 1, 53}, {5, 5, 1, 54}, {7, 7, 1, 54}, {8, 8, 1, 54}, {5, 6, 1, 55}, {7, 8, 1, 55}, {8, 9, 1, 55}, {6, 6, 1, 56}, {8, 8, 1, 56}, {9, 9, 1, 56}, {4, 4, 1, 57}, {5, 5, 2, 57}, {6, 6, 2, 57}, {7, 7, 1, 57}, {8, 8, 2, 57}, {9, 9, 1, 57}, {4, 10, 1, 58}, {5, 11, 2, 58}, {6, 12, 2, 58}, {7, 13, 1, 58}, {8, 14, 2, 58}, {9, 15, 1, 58}, {4, 11, 1, 59}, {5, 13, 2, 59}, {6, 14, 2, 59}, {7, 16, 1, 59}, {8, 17, 2, 59}, {9, 18, 1, 59}, {4, 12, 1, 60}, {5, 14, 2, 60}, {6, 15, 2, 60}, {7, 17, 1, 60}, {8, 18, 2, 60}, {9, 19, 1, 60}, {10, 10, 1, 61}, {11, 11, 3, 61}, {12, 12, 3, 61}, {13, 13, 3, 61}, {14, 14, 6, 61}, {15, 15, 3, 61}, {16, 16, 1, 61}, {17, 17, 3, 61}, {18, 18, 3, 61}, {19, 19, 1, 61}, {20, 20, 1, 62}, {21, 21, 4, 62}, {22, 22, 4, 62}, {23, 23, 6, 62}, {24, 24, 12, 62}, {25, 25, 6, 62}, {26, 26, 4, 62}, {27, 27, 12, 62}, {28, 28, 12, 62}, {29, 29, 4, 62}, {30, 30, 1, 62}, {31, 31, 4, 62}, {32, 32, 6, 62}, {33, 33, 4, 62}, {34, 34, 1, 62}, {0, 35, 1, 63}, {1, 36, 1, 64}, {2, 37, 1, 64}, {3, 38, 1, 64}, {4, 39, 1, 65}, {5, 40, 2, 65}, {6, 41, 2, 65}, {7, 42, 1, 65}, {8, 43, 2, 65}, {9, 44, 1, 65}, {0, 45, 1, 66}, {35, 35, 1, 67}, {0, 46, 1, 68}, {0, 47, 1, 69}, {0, 57, 1, 70}, {0, 61, 1, 71}, {1, 48, 1, 72}, {2, 49, 1, 72}, {3, 50, 1, 72}, {1, 58, 1, 73}, {2, 59, 1, 73}, {3, 60, 1, 73}, {4, 51, 1, 74}, {5, 52, 2, 74}, {6, 53, 2, 74}, {7, 54, 1, 74}, {8, 55, 2, 74}, {9, 56, 1, 74}, {0, 63, 1, 75}, {0, 64, 1, 76}, {35, 47, 1, 77}, {47, 47, 1, 78}, {0, 68, 1, 79}, {0, 69, 1, 80}, {0, 70, 1, 81}, {0, 72, 1, 82}, {0, 75, 1, 83}}
alpha_scalar_moments = 29
alpha_moment_mapping = {0, 35, 45, 46, 47, 57, 61, 62, 63, 64, 65, 66, 67, 68, 69, 70, 71, 72, 73, 74, 75, 76, 77, 79, 80, 81, 82, 78, 83}
species_coeffs = {-8.900834351168358e+00, -1.182606707590512e+01, -2.956516768836198e+00}
moment_coeffs = {-2.583533266669963e+00, 3.943180643175973e+00, -2.708846888529596e+00, -3.106509664258249e+00, 1.278911976686223e+00, 1.000581153799791e+01, 7.889002496731254e+00, -5.579954561495316e-02, -1.024067113452359e+01, -9.473245307828840e-01, 6.584603773550330e+00, 3.031973716616571e+00, 1.032968168039533e+01, 6.317937287473293e+00, -3.558719077369527e+00, -6.573672721506633e+00, 1.345690591055813e+01, 1.959023484925410e+01, 2.382057424011853e+01, -1.551883836191823e+01, -7.492910615716935e+00, 4.073884188660719e+00, -2.324579543332841e+01, 7.802774937919419e+00, 1.058605735789804e+01, -1.525683830508875e+01, 2.031226675296979e+01, -2.681744509975486e+01, -2.001549072115320e+00}
