MTP
version = 1.1.0
potential_name = MTP1m
scaling = 1.922049912077503e-01
species_count = 3
potential_tag = 
radial_basis_type = RBChebyshev
	min_dist = 1.000000000000000e+00
	max_dist = 6.000000000000000e+00
	radial_basis_size = 8
	radial_funcs_count = 3
	radial_coeffs
		0-0
			{-2.723936769101861e-02, -3.780955669740353e-01, -6.241928176540605e-02, -2.680403202525476e-01, -5.453729109656767e-02, -1.185525024367938e-01, -1.466921387020391e-02, -2.506974811916626e-02}
			{1.313136391960687e-03, 1.446718885318644e-02, -1.740901468372934e-02, 2.177998619136598e-02, -4.234166170726509e-03, 1.925968597734149e-02, 9.795920748728402e-04, 7.247698688489034e-03}
			{-2.671412501581444e-02, 1.066416824790253e-01, -3.279200340587285e-04, 4.509377025687926e-02, 1.738685952127124e-02, 8.966414577447995e-03, 5.270880050360216e-03, 1.633982168038815e-04}
		0-1
			{6.154377585151465e-02, 9.260608648490939e-02, 1.982087487804472e-02, 1.654251549021934e-02, -4.965819304907803e-03, -8.731679687447846e-03, 1.593834165269688e-02, 1.108824158307583e-02}
			{1.196757546447504e-01, 9.266339833533202e-02, 9.280246851353177e-02, 7.439629281890496e-02, 1.564373508694513e-02, 4.115419958490234e-02, 1.237722046426273e-03, 1.044786189027393e-02}
			{-1.024517961422676e-01, 9.056694193249011e-02, 8.548534416240826e-02, -1.668241682482781e-01, 1.512353838868676e-01, -1.165475795512023e-01, -2.703848289105101e-02, -7.687792179756645e-02}
		0-2
			{4.050394456695640e-03, 7.385356804534866e-02, 2.252400938411019e-04, 5.946709268388392e-02, 1.138496809487277e-02, 3.235064585396689e-02, 6.324701811494265e-03, 9.982752325437187e-03}
			{-6.116025945940763e-02, 1.450794361772697e-02, -6.405636779834360e-02, 2.055843318974872e-02, -2.559252576571156e-02, 1.182299052305769e-02, -9.273483376883350e-03, 5.853758999550491e-03}
			{-5.775744682857556e-02, 1.486000688832258e-01, -5.886880940167073e-02, -1.287016436718654e-02, -2.951741404407546e-02, -4.713378791966934e-02, -3.527018077834507e-02, -2.419361792421929e-02}
		1-0
			{5.865060450389988e-02, -1.502380134364413e-01, 1.044944896025580e-01, -7.765818540952016e-02, 5.307098964065689e-02, -2.874585971150224e-02, 1.855737483288763e-02, -2.983306467401014e-03}
			{1.192702105684720e-01, -1.202455412696823e-01, 1.267957827123687e-01, -3.749414797592113e-02, 4.089345945720346e-02, 1.888427488435080e-02, 7.423001551262317e-03, 1.479430494276716e-02}
			{-9.159089986900214e-02, -1.890043856381879e-01, -1.697081512225442e-01, -6.133293615079803e-02, -6.183480919871454e-02, -2.370001586094746e-02, 6.932788537385952e-02, 5.823390099161074e-02}
		1-1
			{-7.800970925448542e-02, -2.347679661075411e-01, -2.170690110152979e-01, -1.961755996615280e-02, -1.533929201694623e-01, -6.533130144177191e-02, -2.268463226390571e-02, -3.963422450210043e-02}
			{4.496453241644288e-01, 1.335596240250247e-01, 2.677541821069091e-01, 4.017555682037024e-01, -2.112706350081505e-01, 4.892828723284271e-01, -1.610710955456701e-01, 1.856248256506425e-01}
			{-1.336863435449797e-01, -3.113154755825058e-01, -1.759088975962931e-01, 1.362319426365214e-02, -3.428394500787282e-01, 1.024357167987873e-01, -1.478273636758431e-01, -2.674096655753450e-02}
		1-2
			{-2.450605375031804e-02, 8.536937928341551e-02, 4.725338747399096e-02, -2.152258926760331e-02, 6.978061400907148e-02, -3.775072547114813e-02, 2.656954087116879e-02, -1.046054308360486e-02}
			{-4.236895913331310e-02, 1.312984357156537e-01, -2.593091465530018e-02, 7.827096942458035e-02, 3.252064440748419e-03, 3.932347249273524e-02, -1.349871349420176e-03, 2.311889361780479e-02}
			{2.481836349715718e-01, 1.355342146566188e-01, -8.225934226622132e-02, -6.832019517905498e-02, -1.761633503537665e-01, 2.079711019929008e-01, -2.099224499974309e-01, 6.942490196148574e-02}
		2-0
			{7.302374949373631e-02, 1.176233524839165e-02, 5.743302200600916e-02, 2.484770314747842e-03, 3.417199122057063e-02, -3.130202046470585e-03, 1.002542145923625e-02, -2.238847435325055e-03}
			{2.399414685275686e-02, -1.818072028216958e-02, 6.324344639120303e-03, -6.462402923405603e-03, 4.526500694078637e-04, -4.204242389335073e-03, 8.595348530583367e-04, -6.207011793079207e-04}
			{2.232455709114262e-02, -4.366150398594286e-02, -3.263395314728260e-02, 1.082320248324772e-01, -3.922825894534472e-02, 8.479317711959315e-02, 3.044336961755158e-02, 3.128984577975401e-02}
		2-1
			{2.751861235862706e-01, 3.058712777927779e-01, 2.395834536789255e-01, 4.542702100936234e-02, 1.674543214118779e-01, -2.316738866322477e-02, 6.499159404988243e-02, -3.508298597981109e-02}
			{1.329981068073493e-01, 1.762015777960160e-01, 4.177161965402836e-02, 1.266426512869182e-01, -1.031126054257364e-02, 4.971582261928219e-02, -5.302901730105631e-03, 5.983442485376200e-03}
			{-9.298674851312332e-02, -1.741303648413076e-01, 1.768965207035605e-01, 1.877443679589083e-01, 6.235031842048792e-02, -1.330878792019229e-01, 1.680326898523365e-01, -6.401185862551267e-02}
		2-2
			{1.570459352377800e-01, -2.420696844005138e-01, 3.912564300156822e-01, -6.626638025564435e-02, 1.393036127179778e-01, 2.226324012149508e-02, 4.403234853384358e-02, 1.424054115538534e-02}
			{-6.755575571715269e-02, 2.255944241532274e-02, -2.520507215500144e-02, -1.646635113580729e-03, -1.460327067911061e-02, -3.940998506623137e-03, -3.974858664297797e-03, -5.250655827309484e-04}
			{-1.593332944308080e-01, 6.074018744325969e-02, -1.730401497404069e-01, -6.369303268229212e-02, -1.617944247045018e-02, -7.314305061067244e-02, -9.739426842653378e-03, -1.325623559843146e-02}
alpha_moments_count = 84
alpha_index_basic_count = 46
alpha_index_basic = {{0, 0, 0, 0}, {0, 1, 0, 0}, {0, 0, 1, 0}, {0, 0, 0, 1}, {0, 2, 0, 0}, {0, 1, 1, 0}, {0, 1, 0, 1}, {0, 0, 2, 0}, {0, 0, 1, 1}, {0, 0, 0, 2}, {0, 3, 0, 0}, {0, 2, 1, 0}, {0, 2, 0, 1}, {0, 1, 2, 0}, {0, 1, 1, 1}, {0, 1, 0, 2}, {0, 0, 3, 0}, {0, 0, 2, 1}, {0, 0, 1, 2}, {0, 0, 0, 3}, {0, 4, 0, 0}, {0, 3, 1, 0}, {0, 3, 0, 1}, {0, 2, 2, 0}, {0, 2, 1, 1}, {0, 2, 0, 2}, {0, 1, 3, 0}, {0, 1, 2, 1}, {0, 1, 1, 2}, {0, 1, 0, 3}, {0, 0, 4, 0}, {0, 0, 3, 1}, {0, 0, 2, 2}, {0, 0, 1, 3}, {0, 0, 0, 4}, {1, 0, 0, 0}, {1, 1, 0, 0}, {1, 0, 1, 0}, {1, 0, 0, 1}, {1, 2, 0, 0}, {1, 1, 1, 0}, {1, 1, 0, 1}, {1, 0, 2, 0}, {1, 0, 1, 1}, {1, 0, 0, 2}, {2, 0, 0, 0}}
alpha_index_times_count = 117
alpha_index_times = {{0, 0, 1, 46}, {1, 1, 1, 47}, {2, 2, 1, 47}, {3, 3, 1, 47}, {1, 4, 1, 48}, {2, 5, 1, 48}, {3, 6, 1, 48}, {1, 5, 1, 49}, {2, 7, 1, 49}, {3, 8, 1, 49}, {1, 6, 1, 50}, {2, 8, 1, 50}, {3, 9, 1, 50}, {4, 4, 1, 51}, {5, 5, 1, 51}, {6, 6, 1, 51}, {4, 5, 1, 52}, {5, 7, 1, 52}, {6, 8, 1, 52}, {4, 6, 1, 53}, {5, 8, 1, 53}, {6, 9, 1, 53}, {5, 5, 1, 54}, {7, 7, 1, 54}, {8, 8, 1, 54}, {5, 6, 1, 55}, {7, 8, 1, 55}, {8, 9, 1, 55}, {6, 6, 1, 56}, {8, 8, 1, 56}, {9, 9, 1, 56}, {4, 4, 1, 57}, {5, 5, 2, 57}, {6, 6, 2, 57}, {7, 7, 1, 57}, {8, 8, 2, 57}, {9, 9, 1, 57}, {4, 10, 1, 58}, {5, 11, 2, 58}, {6, 12, 2, 58}, {7, 13, 1, 58}, {8, 14, 2, 58}, {9, 15, 1, 58}, {4, 11, 1, 59}, {5, 13, 2, 59}, {6, 14, 2, 59}, {7, 16, 1, 59}, {8, 17, 2, 59}, {9, 18, 1, 59}, {4, 12, 1, 60}, {5, 14, 2, 60}, {6, 15, 2, 60}, {7, 17, 1, 60}, {8, 18, 2, 60}, {9, 19, 1, 60}, {10, 10, 1, 61}, {11, 11, 3, 61}, {12, 12, 3, 61}, {13, 13, 3, 61}, {14, 14, 6, 61}, {15, 15, 3, 61}, {16, 16, 1, 61}, {17, 17, 3, 61}, {18, 18, 3, 61}, {19, 19, 1, 61}, {20, 20, 1, 62}, {21, 21, 4, 62}, {22, 22, 4, 62}, {23, 23, 6, 62}, {24, 24, 12, 62}, {25, 25, 6, 62}, {26, 26, 4, 62}, {27, 27, 12, 62}, {28, 28, 12, 62}, {29, 29, 4, 62}, {30, 30, 1, 62}, {31, 31, 4, 62}, {32, 32, 6, 62}, {33, 33, 4, 62}, {34, 34, 1, 62}, {0, 35, 1, 63}, {1, 36, 1, 64}, {2, 37, 1, 64}, {3, 38, 1, 64}, {4, 39, 1, 65}, {5, 40, 2, 65}, {6, 41, 2, 65}, {7, 42, 1, 65}, {8, 43, 2, 65}, {9, 44, 1, 65}, {0, 45, 1, 66}, {35, 35, 1, 67}, {0, 46, 1, 68}, {0, 47, 1, 69}, {0, 57, 1, 70}, {0, 61, 1, 71}, {1, 48, 1, 72}, {2, 49, 1, 72}, {3, 50, 1, 72}, {1, 58, 1, 73}, {2, 59, 1, 73}, {3, 60, 1, 73}, {4, 51, 1, 74}, {5, 52, 2, 74}, {6, 53, 2, 74}, {7, 54, 1, 74}, {8, 55, 2, 74}, {9, 56, 1, 74}, {0, 63, 1, 75}, {0, 64, 1, 76}, {35, 47, 1, 77}, {47, 47, 1, 78}, {0, 68, 1, 79}, {0, 69, 1, 80}, {0, 70, 1, 81}, {0, 72, 1, 82}, {0, 75, 1, 83}}
alpha_scalar_moments = 29
alpha_moment_mapping = {0, 35, 45, 46, 47, 57, 61, 62, 63, 64, 65, 66, 67, 68, 69, 70, 71, 72, 73, 74, 75, 76, 77, 79, 80, 81, 82, 78, 83}
species_coeffs = {-5.862643882154128e+00, -1.638963840681541e+01, -4.293361096544944e+00}
moment_coeffs = {-4.548720984619803e-01, 1.679009014378880e+00, -4.319800664924623e+00, -1.317805272541191e+00, -2.525012955086763e+00, -2.476952218621410e+00, 1.045413516684683e+01, 1.946682804121448e+00, -3.728588893614844e-01, 1.051998382986576e+01, 7.071008106229509e+00, -7.911708542432003e-01, 3.809158368355744e+01, 5.175561553788744e+00, -7.767846144145726e+00, -1.785816390816596e+01, 7.514450262970110e+00, 7.326763178278481e+00, 1.786268860085428e+00, -2.032766142700600e+00, 6.942275383068619e+00, 1.076605754519038e+01, -9.196686137551943e+00, 3.252875406022595e+00, -1.302879433756096e+00, -8.234162252090981e+00, 6.798792009176991e+00, 1.749388786719557e+01, 4.859807413893519e-01}
