MTP
version = 1.1.0
potential_name = MTP1m
scaling = 2.114254903285254e-01
species_count = 3
potential_tag = 
radial_basis_type = RBChebyshev
	min_dist = 1.000000000000000e+00
	max_dist = 5.000000000000000e+00
	radial_basis_size = 8
	radial_funcs_count = 3
	radial_coeffs
		0-0
			{1.319994063630408e-02, 1.326569533015411e-01, -2.532183719614240e-02, 8.989163510419758e-02, -4.968398648159109e-03, 4.556452351249650e-02, 4.924146272494355e-03, 8.843823598058886e-03}
			{2.906126952859918e-02, -4.159650662439677e-02, 7.766185016431741e-02, -1.711812048759043e-02, 3.535947127863776e-02, 7.218763016346740e-04, 8.944263840443910e-03, 4.003632359661374e-03}
			{8.371862453274814e-02, -3.067284057257265e-02, 7.291376410218722e-02, 1.825095744094234e-02, 2.197755971821750e-02, 2.225958364818015e-02, 7.336463097963404e-03, 5.970930186159569e-03}
		0-1
			{1.240863310588229e-02, -9.461706364511210e-02, -4.513651429938738e-02, -4.817493283840237e-02, 1.265020769947348e-02, -2.482233790141884e-02, 3.212153737159071e-02, -1.524784232664995e-02}
			{1.773788998176217e-01, 2.367053035762159e-01, 1.513357222257834e-01, 8.639953084501807e-02, -3.448377707737627e-02, 6.703221411591190e-02, -2.598853486830079e-02, 2.251772856099225e-02}
			{-9.595403621818559e-03, -1.007169224439761e-01, -9.481278333619867e-03, 9.184213138465573e-02, -8.836808412910298e-02, -9.168941718790766e-02, -3.169501830364628e-02, -1.052141160088476e-01}
		0-2
			{-5.172355068083521e-02, 1.737648485773520e-01, -5.712636594827417e-02, 1.154775451100179e-01, -1.592368802615228e-02, 5.852661256359368e-02, -6.166261930120809e-03, 1.630048291314019e-02}
			{-9.567542916178332e-02, -2.867184173337514e-01, -4.959173868739041e-02, -9.670048135684629e-02, -1.319945924311331e-02, -3.702980330959257e-02, 5.914064758868461e-03, -5.881531999432160e-03}
			{-1.108542858299986e-01, -1.066439550208534e-01, -7.438433702883591e-02, -8.380151384284182e-02, 2.678148521533843e-03, -1.066887057704004e-02, -2.089801598542089e-03, 7.448473473437468e-03}
		1-0
			{-1.496900449179830e-02, -5.643786658207781e-04, -4.154188847764125e-02, -2.264662551939544e-02, -1.110999276986513e-02, -1.531334874704688e-02, -9.736684959315667e-04, -4.196488214592159e-03}
			{6.296373931251267e-02, 2.995310771661108e-02, 1.463860121731180e-02, 1.129671977039081e-02, -8.766674684477531e-03, 4.628547836038513e-03, 9.425767298607623e-05, -8.032290485159116e-04}
			{8.874917039033282e-02, 2.027599751473536e-03, -4.335179015895339e-02, -5.300674432822144e-03, -3.304906166139324e-03, 9.449083238187082e-02, 2.295399721148754e-02, 7.570578401810653e-02}
		1-1
			{1.990167366765958e-01, 2.357343720209101e-01, 3.063593563028429e-01, 1.588505283814733e-01, 2.454254125222062e-01, 1.549405545176568e-01, 6.251644282443208e-02, 6.971403666588372e-02}
			{1.714552601891059e-01, 2.746136917197021e-01, 2.376284230816055e-01, 2.278968020807136e-02, 6.089557785285864e-02, 1.751139984288145e-01, -4.405004554066288e-02, 8.391539372701534e-02}
			{1.990910348293442e-02, -1.056513458141928e-01, -1.295585301915302e-01, 3.354096622424647e-02, 7.814718141135060e-03, -6.578852134276994e-02, 3.897113379196489e-02, -1.865781460033126e-02}
		1-2
			{-1.118336378639595e-01, 2.526995215989072e-01, -1.880324440052343e-01, 1.834347813054997e-01, -4.243403631386184e-02, 5.067874785390807e-02, 3.495337351121014e-03, 3.108983876253149e-02}
			{-9.739241634964278e-02, 3.490690956285837e-01, -1.233228653399102e-01, 2.024604914584807e-01, -7.660640655950743e-02, 1.401429591657254e-01, -4.146467030344932e-02, 4.249531544367518e-02}
			{-2.187850682857705e-01, 7.898210427094034e-02, -1.143486559122922e-01, -2.327258661509643e-02, -4.293136251949149e-02, -1.272862502282490e-03, -2.009016074135350e-02, 7.674896740875936e-04}
		2-0
			{7.667842893208999e-03, -2.232118773513466e-03, -5.872924107034248e-02, -5.487994026564621e-04, -3.003099948023626e-02, -3.433510375568684e-03, -9.250909745194734e-03, 9.116443053745661e-05}
			{-5.304436765240519e-02, 2.444554015651221e-02, 2.425297404937393e-02, -4.974468677844063e-03, 2.346364332475299e-02, 8.974407845913034e-03, 6.982349646428524e-03, 1.163147649828738e-03}
			{2.589984208375936e-01, 2.243428264832129e-01, 3.709571892798441e-01, 1.196855446261873e-01, 2.072267093895444e-01, 6.378914541670606e-02, 5.124774027641991e-02, 7.388578556463879e-03}
		2-1
			{1.953627660236024e-01, 4.952378540052172e-01, -2.575152194936857e-02, 2.875751533985973e-01, -2.373951788938401e-02, 1.358015463725582e-01, -3.964242425154497e-03, 1.801848914936584e-02}
			{-4.026977886177953e-01, -1.942480958562993e-01, -1.736828484550884e-01, -1.882440217299792e-01, 5.742755669224982e-03, -9.116535175262007e-02, 1.860930287001835e-02, -1.265835533024322e-02}
			{2.368970363951680e-01, 1.521514381473862e-01, 6.583876372428207e-02, -1.273116172075501e-02, 2.720096307542699e-01, 1.058308754657241e-02, 1.312099433649044e-01, 2.692657994916479e-02}
		2-2
			{-2.049873666700534e-01, -8.397566883661575e-02, -1.491153237390585e-02, -1.930904221700123e-02, -2.439853113841446e-02, 1.359394869013115e-02, -1.588902826472486e-02, 1.294406623170573e-02}
			{2.028033102948444e-01, 7.783789384688258e-02, 4.006756733015027e-02, 5.979558799729361e-02, 3.592463284816829e-02, 3.743059070601793e-03, 2.084996693873736e-02, -7.595488473948375e-03}
			{2.982503681385306e-01, 6.825595884234936e-02, 1.710192829884198e-01, 3.273333792863906e-01, -1.175231589783402e-01, 1.785892747386724e-01, -1.849770194797720e-02, 1.733446720878564e-02}
alpha_moments_count = 84
alpha_index_basic_count = 46
alpha_index_basic = {{0, 0, 0, 0}, {0, 1, 0, 0}, {0, 0, 1, 0}, {0, 0, 0, 1}, {0, 2, 0, 0}, {0, 1, 1, 0}, {0, 1, 0, 1}, {0, 0, 2, 0}, {0, 0, 1, 1}, {0, 0, 0, 2}, {0, 3, 0, 0}, {0, 2, 1, 0}, {0, 2, 0, 1}, {0, 1, 2, 0}, {0, 1, 1, 1}, {0, 1, 0, 2}, {0, 0, 3, 0}, {0, 0, 2, 1}, {0, 0, 1, 2}, {0, 0, 0, 3}, {0, 4, 0, 0}, {0, 3, 1, 0}, {0, 3, 0, 1}, {0, 2, 2, 0}, {0, 2, 1, 1}, {0, 2, 0, 2}, {0, 1, 3, 0}, {0, 1, 2, 1}, {0, 1, 1, 2}, {0, 1, 0, 3}, {0, 0, 4, 0}, {0, 0, 3, 1}, {0, 0, 2, 2}, {0, 0, 1, 3}, {0, 0, 0, 4}, {1, 0, 0, 0}, {1, 1, 0, 0}, {1, 0, 1, 0}, {1, 0, 0, 1}, {1, 2, 0, 0}, {1, 1, 1, 0}, {1, 1, 0, 1}, {1, 0, 2, 0}, {1, 0, 1, 1}, {1, 0, 0, 2}, {2, 0, 0, 0}}
alpha_index_times_count = 117
alpha_index_times = {{0, 0, 1, 46}, {1, 1, 1, 47}, {2, 2, 1, 47}, {3, 3, 1, 47}, {1, 4, 1, 48}, {2, 5, 1, 48}, {3, 6, 1, 48}, {1, 5, 1, 49}, {2, 7, 1, 49}, {3, 8, 1, 49}, {1, 6, 1, 50}, {2, 8, 1, 50}, {3, 9, 1, 50}, {4, 4, 1, 51}, {5, 5, 1, 51}, {6, 6, 1, 51}, {4, 5, 1, 52}, {5, 7, 1, 52}, {6, 8, 1, 52}, {4, 6, 1, 53}, {5, 8, 1, 53}, {6, 9, 1, 53}, {5, 5, 1, 54}, {7, 7, 1, 54}, {8, 8, 1, 54}, {5, 6, 1, 55}, {7, 8, 1, 55}, {8, 9, 1, 55}, {6, 6, 1, 56}, {8, 8, 1, 56}, {9, 9, 1, 56}, {4, 4, 1, 57}, {5, 5, 2, 57}, {6, 6, 2, 57}, {7, 7, 1, 57}, {8, 8, 2, 57}, {9, 9, 1, 57}, {4, 10, 1, 58}, {5, 11, 2, 58}, {6, 12, 2, 58}, {7, 13, 1, 58}, {8, 14, 2, 58}, {9, 15, 1, 58}, {4, 11, 1, 59}, {5, 13, 2, 59}, {6, 14, 2, 59}, {7, 16, 1, 59}, {8, 17, 2, 59}, {9, 18, 1, 59}, {4, 12, 1, 60}, {5, 14, 2, 60}, {6, 15, 2, 60}, {7, 17, 1, 60}, {8, 18, 2, 60}, {9, 19, 1, 60}, {10, 10, 1, 61}, {11, 11, 3, 61}, {12, 12, 3, 61}, {13, 13, 3, 61}, {14, 14, 6, 61}, {15, 15, 3, 61}, {16, 16, 1, 61}, {17, 17, 3, 61}, {18, 18, 3, 61}, {19, 19, 1, 61}, {20, 20, 1, 62}, {21, 21, 4, 62}, {22, 22, 4, 62}, {23, 23, 6, 62}, {24, 24, 12, 62}, {25, 25, 6, 62}, {26, 26, 4, 62}, {27, 27, 12, 62}, {28, 28, 12, 62}, {29, 29, 4, 62}, {30, 30, 1, 62}, {31, 31, 4, 62}, {32, 32, 6, 62}, {33, 33, 4, 62}, {34, 34, 1, 62}, {0, 35, 1, 63}, {1, 36, 1, 64}, {2, 37, 1, 64}, {3, 38, 1, 64}, {4, 39, 1, 65}, {5, 40, 2, 65}, {6, 41, 2, 65}, {7, 42, 1, 65}, {8, 43, 2, 65}, {9, 44, 1, 65}, {0, 45, 1, 66}, {35, 35, 1, 67}, {0, 46, 1, 68}, {0, 47, 1, 69}, {0, 57, 1, 70}, {0, 61, 1, 71}, {1, 48, 1, 72}, {2, 49, 1, 72}, {3, 50, 1, 72}, {1, 58, 1, 73}, {2, 59, 1, 73}, {3, 60, 1, 73}, {4, 51, 1, 74}, {5, 52, 2, 74}, {6, 53, 2, 74}, {7, 54, 1, 74}, {8, 55, 2, 74}, {9, 56, 1, 74}, {0, 63, 1, 75}, {0, 64, 1, 76}, {35, 47, 1, 77}, {47, 47, 1, 78}, {0, 68, 1, 79}, {0, 69, 1, 80}, {0, 70, 1, 81}, {0, 72, 1, 82}, {0, 75, 1, 83}}
alpha_scalar_moments = 29
alpha_moment_mapping = {0, 35, 45, 46, 47, 57, 61, 62, 63, 64, 65, 66, 67, 68, 69, 70, 71, 72, 73, 74, 75, 76, 77, 79, 80, 81, 82, 78, 83}
species_coeffs = {-4.640986646475554e+00, -1.394974229359487e+01, -3.487435573398719e+00}
moment_coeffs = {2.599144274535428e+00, 4.114835927943820e+00, 3.296887366424155e+00, -7.296071421063727e-01, -4.771709719134845e+00, 1.084239457210514e+01, 4.582606894983713e+00, 3.813543868998189e-01, 5.574984200936382e+00, -2.751520705794276e+00, 2.697985995401868e+00, 2.258736857316934e+00, 5.550448175328816e+00, -2.694092104055025e-01, -4.722612901754365e+00, 1.654684639716270e+00, 2.323203244073246e+00, -4.818410686073165e+00, 3.299006631452043e+00, 1.090176170755158e+00, -8.779614355156560e-01, -6.222510778609568e+00, -5.543438318735685e+00, 1.182865780703051e+00, 3.101423233340590e+00, -1.654823635647118e+00, -2.751286896623791e+00, 1.229236018742546e+01, -3.547905169700526e-01}