MTP
version = 1.1.0
potential_name = MTP1m
scaling = 1.761879086071045e-01
species_count = 3
potential_tag = 
radial_basis_type = RBChebyshev
	min_dist = 1.000000000000000e+00
	max_dist = 6.000000000000000e+00
	radial_basis_size = 8
	radial_funcs_count = 3
	radial_coeffs
		0-0
			{-1.443771314947053e-02, 6.391222346757949e-02, -5.020798769832003e-02, 2.625528416750507e-02, -3.062875737127112e-02, 3.106363677017116e-05, -8.928656623787772e-03, -5.736312819906941e-03}
			{-7.121308291881516e-03, 3.536379653988759e-02, -6.049487939577667e-03, 9.747475799839759e-03, -3.915437061306248e-03, -6.455464212856463e-04, 1.019887422807531e-03, -2.464095593675634e-03}
			{1.865203732259079e-02, 5.365878043988147e-03, 7.988512998943471e-03, -5.359743290172303e-03, -8.396702700328938e-03, -9.376972859671524e-03, -2.716524657774440e-03, -7.249865019527480e-03}
		0-1
			{3.268694707844434e-02, -8.743583723738249e-02, -2.650653665769314e-02, -8.181509839680653e-02, -5.573994321468330e-02, -5.831267085757769e-02, -2.422031724928876e-02, -2.970830921209820e-02}
			{2.462399283960312e-02, -1.126136856740107e-01, 4.771950239798059e-02, -1.372407637011308e-01, 5.882282767725683e-02, -9.272786529258036e-02, 1.473701608742034e-02, -3.278823244540312e-02}
			{1.313939517083426e-01, 1.438551921264063e-01, 1.979674166503642e-01, 5.783882251537308e-02, 3.239451094666269e-02, 2.026047328700599e-02, 6.343260226669928e-03, -6.477295539338430e-03}
		0-2
			{-2.029781749212418e-03, 1.180405524058818e-01, 7.636695797109177e-03, 6.306111802123700e-02, -5.301213522428726e-03, 2.935707736533963e-02, -2.807544410407462e-04, 1.195510747733327e-02}
			{-9.189808165938184e-03, -4.814273378916507e-02, -2.221069950141104e-03, -3.872842427714739e-02, -2.274304439623068e-02, -2.162680826244085e-02, -7.841924148685462e-03, -6.797301072412070e-03}
			{4.661883155397345e-02, 6.681220988740171e-02, 8.446372710208987e-02, 8.419195399897409e-03, 3.018806606759935e-02, -7.186694350060298e-03, 6.905939139730296e-03, 3.453238798007116e-04}
		1-0
			{1.202500976170420e-01, -1.735558980116138e-01, 1.857351700443700e-01, -1.272557617394045e-01, 9.105848840205119e-02, -5.326991948206834e-02, 2.119867686268330e-02, -1.264161277421392e-02}
			{7.163113654513584e-02, -1.317153095070158e-01, 6.422645492626020e-02, -6.926229376499382e-02, 3.435166818167994e-02, -2.737998121260910e-02, 4.871295099269796e-03, -8.766340331956919e-03}
			{-5.103985855387861e-02, -2.463388567860278e-01, -1.849646136951246e-01, -1.541361518363852e-01, -6.283375453009576e-02, -1.081258583817300e-01, -2.166045120523474e-02, -4.225605910057641e-02}
		1-1
			{-8.756148389908038e-02, -2.745780410864265e-01, -1.987155361077049e-01, -6.597425252523911e-02, -1.384589648235485e-01, 2.121642990595457e-02, -3.821469084179875e-02, 1.495358723265548e-02}
			{4.623397958186414e-01, 4.922283629540462e-01, 4.145268212388793e-01, 1.832316415725041e-01, 1.398438724669907e-01, 2.899542387629582e-02, 1.993074966726802e-03, -1.754838131049921e-02}
			{2.273096818737955e-01, -9.879293024730834e-02, 2.923555845705585e-02, 2.213833233181118e-01, -1.984620190254444e-01, 1.961463997218059e-01, -8.631289827483152e-02, 5.099168489345748e-02}
		1-2
			{2.596106826932164e-02, 1.421497422476374e-01, 2.813480434321201e-02, 5.618637120729775e-02, 1.740408073305671e-02, -1.761709287133004e-02, 1.449638110721948e-02, -1.306119541258847e-02}
			{-2.452091422159998e-02, -2.236945769972704e-03, 2.989060955979252e-02, -2.124464038655702e-02, 3.705708075863328e-02, 2.166976694797122e-03, 8.068727476447827e-03, 8.772219056005653e-03}
			{-5.370923596260105e-02, 2.986097409069954e-01, 1.702231641929239e-02, 1.396274114253759e-01, 4.582618104148446e-02, 4.532660800686533e-02, 1.629493062995237e-02, 1.168274507691764e-02}
		2-0
			{3.124475635816512e-03, -1.803914814174309e-02, -4.997608038535530e-03, 1.540263119467745e-02, 9.590421555009977e-03, 1.191406117857710e-02, 6.485764179697345e-03, 3.730674987036036e-03}
			{-2.641715971475854e-02, 1.401301347534186e-02, -1.824444487689815e-02, -1.084620015136400e-02, -6.385494603162187e-03, -4.967103464072775e-03, -3.617085729910696e-03, -9.347354277536416e-05}
			{-1.238808358806932e-01, -2.814053281849389e-01, -2.390040316926202e-01, -1.712438530300382e-01, -1.057644201483028e-01, -6.346667191713494e-02, -3.048800900902220e-02, -5.935937678650326e-03}
		2-1
			{1.026459882735105e-01, 5.403419680514603e-01, 2.181159889154843e-02, 4.042151640727732e-01, 1.924668113768942e-02, 1.850329022509358e-01, -5.069929491158280e-03, 5.349550192712289e-02}
			{-9.685406982421428e-02, 1.699485681633942e-01, -9.098596601971878e-02, 1.308035178221298e-02, -3.617564268429681e-02, -2.296787217929344e-02, -9.471154724056725e-03, -6.170797803987867e-03}
			{3.212938583587264e-01, 3.319561934586966e-02, 1.953396808965349e-01, -1.403890362400263e-01, 7.233733550606684e-02, -1.624691443315716e-01, 7.009582650089891e-03, -5.125652889791892e-02}
		2-2
			{-2.613206741272631e-01, 1.009667967614316e-01, -2.675030477901623e-01, 3.681483002342152e-02, -1.013790983612051e-01, 2.666888985569758e-02, -1.002503881097992e-02, 8.622979030133846e-03}
			{-1.211779691860282e-01, 2.541568993190969e-01, -2.198240882211679e-01, 1.789648352690135e-01, -1.070347449033686e-01, 6.969402637207144e-02, -2.296402331276684e-02, 1.247924498033277e-02}
			{4.543031725771791e-02, -1.808737926086194e-01, 9.393690877253007e-02, -1.083089994096112e-03, -2.923293204370970e-02, 9.038382483220647e-02, -2.640035189900547e-02, 2.606704603364801e-02}
alpha_moments_count = 84
alpha_index_basic_count = 46
alpha_index_basic = {{0, 0, 0, 0}, {0, 1, 0, 0}, {0, 0, 1, 0}, {0, 0, 0, 1}, {0, 2, 0, 0}, {0, 1, 1, 0}, {0, 1, 0, 1}, {0, 0, 2, 0}, {0, 0, 1, 1}, {0, 0, 0, 2}, {0, 3, 0, 0}, {0, 2, 1, 0}, {0, 2, 0, 1}, {0, 1, 2, 0}, {0, 1, 1, 1}, {0, 1, 0, 2}, {0, 0, 3, 0}, {0, 0, 2, 1}, {0, 0, 1, 2}, {0, 0, 0, 3}, {0, 4, 0, 0}, {0, 3, 1, 0}, {0, 3, 0, 1}, {0, 2, 2, 0}, {0, 2, 1, 1}, {0, 2, 0, 2}, {0, 1, 3, 0}, {0, 1, 2, 1}, {0, 1, 1, 2}, {0, 1, 0, 3}, {0, 0, 4, 0}, {0, 0, 3, 1}, {0, 0, 2, 2}, {0, 0, 1, 3}, {0, 0, 0, 4}, {1, 0, 0, 0}, {1, 1, 0, 0}, {1, 0, 1, 0}, {1, 0, 0, 1}, {1, 2, 0, 0}, {1, 1, 1, 0}, {1, 1, 0, 1}, {1, 0, 2, 0}, {1, 0, 1, 1}, {1, 0, 0, 2}, {2, 0, 0, 0}}
alpha_index_times_count = 117
alpha_index_times = {{0, 0, 1, 46}, {1, 1, 1, 47}, {2, 2, 1, 47}, {3, 3, 1, 47}, {1, 4, 1, 48}, {2, 5, 1, 48}, {3, 6, 1, 48}, {1, 5, 1, 49}, {2, 7, 1, 49}, {3, 8, 1, 49}, {1, 6, 1, 50}, {2, 8, 1, 50}, {3, 9, 1, 50}, {4, 4, 1, 51}, {5, 5, 1, 51}, {6, 6, 1, 51}, {4, 5, 1, 52}, {5, 7, 1, 52}, {6, 8, 1, 52}, {4, 6, 1, 53}, {5, 8, 1, 53}, {6, 9, 1, 53}, {5, 5, 1, 54}, {7, 7, 1, 54}, {8, 8, 1, 54}, {5, 6, 1, 55}, {7, 8, 1, 55}, {8, 9, 1, 55}, {6, 6, 1, 56}, {8, 8, 1, 56}, {9, 9, 1, 56}, {4, 4, 1, 57}, {5, 5, 2, 57}, {6, 6, 2, 57}, {7, 7, 1, 57}, {8, 8, 2, 57}, {9, 9, 1, 57}, {4, 10, 1, 58}, {5, 11, 2, 58}, {6, 12, 2, 58}, {7, 13, 1, 58}, {8, 14, 2, 58}, {9, 15, 1, 58}, {4, 11, 1, 59}, {5, 13, 2, 59}, {6, 14, 2, 59}, {7, 16, 1, 59}, {8, 17, 2, 59}, {9, 18, 1, 59}, {4, 12, 1, 60}, {5, 14, 2, 60}, {6, 15, 2, 60}, {7, 17, 1, 60}, {8, 18, 2, 60}, {9, 19, 1, 60}, {10, 10, 1, 61}, {11, 11, 3, 61}, {12, 12, 3, 61}, {13, 13, 3, 61}, {14, 14, 6, 61}, {15, 15, 3, 61}, {16, 16, 1, 61}, {17, 17, 3, 61}, {18, 18, 3, 61}, {19, 19, 1, 61}, {20, 20, 1, 62}, {21, 21, 4, 62}, {22, 22, 4, 62}, {23, 23, 6, 62}, {24, 24, 12, 62}, {25, 25, 6, 62}, {26, 26, 4, 62}, {27, 27, 12, 62}, {28, 28, 12, 62}, {29, 29, 4, 62}, {30, 30, 1, 62}, {31, 31, 4, 62}, {32, 32, 6, 62}, {33, 33, 4, 62}, {34, 34, 1, 62}, {0, 35, 1, 63}, {1, 36, 1, 64}, {2, 37, 1, 64}, {3, 38, 1, 64}, {4, 39, 1, 65}, {5, 40, 2, 65}, {6, 41, 2, 65}, {7, 42, 1, 65}, {8, 43, 2, 65}, {9, 44, 1, 65}, {0, 45, 1, 66}, {35, 35, 1, 67}, {0, 46, 1, 68}, {0, 47, 1, 69}, {0, 57, 1, 70}, {0, 61, 1, 71}, {1, 48, 1, 72}, {2, 49, 1, 72}, {3, 50, 1, 72}, {1, 58, 1, 73}, {2, 59, 1, 73}, {3, 60, 1, 73}, {4, 51, 1, 74}, {5, 52, 2, 74}, {6, 53, 2, 74}, {7, 54, 1, 74}, {8, 55, 2, 74}, {9, 56, 1, 74}, {0, 63, 1, 75}, {0, 64, 1, 76}, {35, 47, 1, 77}, {47, 47, 1, 78}, {0, 68, 1, 79}, {0, 69, 1, 80}, {0, 70, 1, 81}, {0, 72, 1, 82}, {0, 75, 1, 83}}
alpha_scalar_moments = 29
alpha_moment_mapping = {0, 35, 45, 46, 47, 57, 61, 62, 63, 64, 65, 66, 67, 68, 69, 70, 71, 72, 73, 74, 75, 76, 77, 79, 80, 81, 82, 78, 83}
species_coeffs = {-4.531617730034251e+00, -2.228395977714908e+01, -5.570988285274391e+00}
moment_coeffs = {-4.186217564396475e+00, 7.823270306273304e-01, 5.041117376451936e+00, -2.067207488895033e+00, -1.327299283430061e+00, 1.136116335693775e+01, 5.597882640748126e+00, 5.921146695067750e-01, -5.080901124732829e+00, -3.640103150257878e+00, 2.271149159609602e+00, 2.920371456881710e+00, 6.949952509752797e+00, -1.016394964838954e+00, 4.366870929775374e+00, 7.217086393870108e+00, 2.221342390770160e+00, -3.754983638139735e+00, 5.655416106966610e+00, -1.467512683316865e+00, 3.929595516254339e+00, -5.686655055212476e+00, -6.502769368899851e+00, -2.557545932157367e-01, 2.320984599288295e+00, 8.084597193212443e-01, 2.991031180146283e-01, 1.158909840428140e+01, 2.242255864661077e+00}
