MTP
version = 1.1.0
potential_name = MTP1m
scaling = 2.814073276272674e-01
species_count = 3
potential_tag = 
radial_basis_type = RBChebyshev
	min_dist = 1.000000000000000e+00
	max_dist = 6.000000000000000e+00
	radial_basis_size = 8
	radial_funcs_count = 3
	radial_coeffs
		0-0
			{-2.068544047067686e-02, 9.933627406963710e-02, -2.703392122630152e-02, 6.027445536828801e-02, -2.378288300891041e-02, 2.853198484727221e-02, -4.791569660210418e-03, 7.689023977813814e-03}
			{3.796714639242391e-02, -1.204251560672898e-01, 4.692720863754733e-02, -7.462246729413555e-02, 2.282250568643400e-02, -3.424465767874386e-02, 4.351056794153619e-03, -8.486837043715311e-03}
			{3.476835959404705e-02, -2.122662817059002e-01, 1.014648692046485e-01, -1.001438513104206e-01, 3.784381912223523e-02, -2.952916547612225e-02, 4.443370658715985e-03, -7.036591481451690e-03}
		0-1
			{-1.126939218892089e-01, -1.223636467452576e-02, -1.396591034522740e-01, 1.314023707996752e-02, -7.462251817639415e-02, 1.182925070239040e-02, -1.713690227459666e-02, 8.737405329884883e-04}
			{4.241079919437340e-02, -3.317207770632546e-02, 2.659712963425531e-02, 7.644819732163807e-03, 7.356340449181928e-03, 1.590987715710249e-02, 2.605019398141413e-05, 1.074327064154319e-02}
			{5.791845565453907e-02, -5.972777990723994e-02, 1.176898524776640e-02, 9.955248642722711e-02, -1.695299386854932e-01, 8.765642081843530e-02, -5.708989430531132e-02, -4.321710927901507e-03}
		0-2
			{-7.144472531312093e-02, -8.724357039626626e-02, -1.099263937820320e-01, -2.001965676455465e-02, -2.181328403828244e-02, 6.917826595452291e-03, 1.669357282752681e-03, 4.921926085744183e-03}
			{1.675832228977278e-02, 1.003649745764986e-01, 3.157779668818717e-02, 3.835410751829652e-02, 1.337506175566435e-02, 1.815210589103141e-02, 1.754654611179263e-03, 6.013327321323761e-03}
			{8.004411003060723e-04, -6.825130702635529e-02, -1.413397517916546e-02, 1.010832583640415e-01, -9.977530640388541e-03, 4.227187174236344e-02, 1.321427250507034e-02, 1.949642583619258e-02}
		1-0
			{-1.004604426254543e-01, 2.460478236859785e-01, -1.758859896073503e-01, 1.295300435643134e-01, -8.027462282258156e-02, 3.500117141937071e-02, -1.814753912414413e-02, -7.989297013326850e-04}
			{-4.520026021933783e-02, 1.042216508797384e-02, -9.239174453347314e-02, 2.236743315234075e-02, -3.945937319373367e-02, 6.266860277776495e-03, -1.009150203853104e-02, -3.000164376484206e-04}
			{1.387375790612921e-02, 1.822841477691693e-01, 8.467341899556891e-02, 1.446226591266504e-01, 1.991693388960837e-02, 4.433285568281266e-02, 5.902058372663280e-03, 7.597097193684454e-03}
		1-1
			{2.395017889933574e-01, 1.638502514887422e-01, 3.632495935236745e-01, -3.812602645016084e-02, 2.316230348220337e-01, -8.836371729935630e-02, 8.975859634044303e-02, -3.377812701313775e-02}
			{3.033741114629326e-01, 1.377118782958833e-01, 1.806782174410795e-01, 4.722865154256755e-01, -1.653631306704006e-01, 4.215811923086355e-01, -1.159147408942074e-01, 1.158769908914215e-01}
			{2.168561637503742e-01, 1.059111163549359e-01, 1.189380628208556e-01, 2.892430326602267e-01, -7.040717085482216e-02, 5.098024666854500e-02, 3.303204240170585e-02, -3.553030123977908e-02}
		1-2
			{-6.999674616863563e-02, -8.957124100681699e-02, -1.133063021807609e-01, -9.755622841373916e-02, -5.137070794285716e-02, -5.351981042145914e-02, -1.084961654714534e-02, -1.093316884559796e-02}
			{-1.378033820506654e-03, 2.018427578764658e-01, 3.391648096320898e-02, 1.487022260813581e-01, 3.108064444528753e-02, 8.170475376521499e-02, 1.048108211604124e-02, 2.531866564232757e-02}
			{1.094466257632139e-01, 1.203473109224487e-01, 2.155800697648195e-01, -7.200481553665302e-04, 1.777022652251461e-02, -1.588158485363126e-01, 1.275682014930335e-02, -1.026105074123932e-01}
		2-0
			{2.719878228135713e-02, 1.267875320310950e-02, 2.163116758398337e-02, -8.517221640149661e-03, 6.097789201291067e-03, -8.016477680497368e-03, 5.758348958005657e-04, -1.894737391122264e-03}
			{2.211621568749080e-02, -3.080533491795930e-02, 8.658677258966938e-03, -1.833379087986698e-02, 9.832239860663808e-04, -1.065027955645197e-02, 8.800657500749650e-05, -3.345542831012636e-03}
			{7.673830332309405e-02, 3.909548204327803e-02, 9.321642031234022e-02, -7.093603800267557e-02, 5.588677699807681e-02, -4.956804728371049e-02, 2.267518307256609e-03, -1.459826372805236e-02}
		2-1
			{1.246421505012144e-01, 3.595511012949625e-01, 1.658184545150811e-01, 1.673695131534304e-01, 8.311968378174503e-02, 3.995230620661413e-02, 2.086654732190203e-02, 9.913258462629566e-04}
			{1.365911961690938e-01, 2.330775696794111e-01, 1.030870496237735e-01, 1.615612652867253e-01, 3.962710670861470e-02, 7.184236564731254e-02, 9.133057784016001e-03, 1.695043918452583e-02}
			{-9.690897459540446e-02, -3.625330702447211e-01, -9.366747518437782e-02, -4.179884503553267e-01, 9.622358355246564e-02, -1.193086761202403e-01, 8.261557856467705e-03, 1.882028906470435e-02}
		2-2
			{-1.769558891157745e-01, 2.479010621213914e-01, -3.171414800892937e-01, 1.644567062163641e-01, -1.675097798458019e-01, 5.628180597548469e-02, -3.905176970659099e-02, 3.676446382256278e-03}
			{7.181148861862336e-03, -3.108066599725030e-01, 7.623812520741800e-02, -2.073565382127584e-01, 4.536720132625793e-02, -7.963576592247391e-02, 1.446841438250469e-02, -1.617080264435400e-02}
			{1.936145338822785e-02, 2.511130234424517e-01, -5.962915631115268e-02, 2.318677669125021e-01, -9.082281958117309e-02, 1.101036165179169e-01, -3.215735317596876e-02, 2.094168892580961e-02}
alpha_moments_count = 84
alpha_index_basic_count = 46
alpha_index_basic = {{0, 0, 0, 0}, {0, 1, 0, 0}, {0, 0, 1, 0}, {0, 0, 0, 1}, {0, 2, 0, 0}, {0, 1, 1, 0}, {0, 1, 0, 1}, {0, 0, 2, 0}, {0, 0, 1, 1}, {0, 0, 0, 2}, {0, 3, 0, 0}, {0, 2, 1, 0}, {0, 2, 0, 1}, {0, 1, 2, 0}, {0, 1, 1, 1}, {0, 1, 0, 2}, {0, 0, 3, 0}, {0, 0, 2, 1}, {0, 0, 1, 2}, {0, 0, 0, 3}, {0, 4, 0, 0}, {0, 3, 1, 0}, {0, 3, 0, 1}, {0, 2, 2, 0}, {0, 2, 1, 1}, {0, 2, 0, 2}, {0, 1, 3, 0}, {0, 1, 2, 1}, {0, 1, 1, 2}, {0, 1, 0, 3}, {0, 0, 4, 0}, {0, 0, 3, 1}, {0, 0, 2, 2}, {0, 0, 1, 3}, {0, 0, 0, 4}, {1, 0, 0, 0}, {1, 1, 0, 0}, {1, 0, 1, 0}, {1, 0, 0, 1}, {1, 2, 0, 0}, {1, 1, 1, 0}, {1, 1, 0, 1}, {1, 0, 2, 0}, {1, 0, 1, 1}, {1, 0, 0, 2}, {2, 0, 0, 0}}
alpha_index_times_count = 117
alpha_index_times = {{0, 0, 1, 46}, {1, 1, 1, 47}, {2, 2, 1, 47}, {3, 3, 1, 47}, {1, 4, 1, 48}, {2, 5, 1, 48}, {3, 6, 1, 48}, {1, 5, 1, 49}, {2, 7, 1, 49}, {3, 8, 1, 49}, {1, 6, 1, 50}, {2, 8, 1, 50}, {3, 9, 1, 50}, {4, 4, 1, 51}, {5, 5, 1, 51}, {6, 6, 1, 51}, {4, 5, 1, 52}, {5, 7, 1, 52}, {6, 8, 1, 52}, {4, 6, 1, 53}, {5, 8, 1, 53}, {6, 9, 1, 53}, {5, 5, 1, 54}, {7, 7, 1, 54}, {8, 8, 1, 54}, {5, 6, 1, 55}, {7, 8, 1, 55}, {8, 9, 1, 55}, {6, 6, 1, 56}, {8, 8, 1, 56}, {9, 9, 1, 56}, {4, 4, 1, 57}, {5, 5, 2, 57}, {6, 6, 2, 57}, {7, 7, 1, 57}, {8, 8, 2, 57}, {9, 9, 1, 57}, {4, 10, 1, 58}, {5, 11, 2, 58}, {6, 12, 2, 58}, {7, 13, 1, 58}, {8, 14, 2, 58}, {9, 15, 1, 58}, {4, 11, 1, 59}, {5, 13, 2, 59}, {6, 14, 2, 59}, {7, 16, 1, 59}, {8, 17, 2, 59}, {9, 18, 1, 59}, {4, 12, 1, 60}, {5, 14, 2, 60}, {6, 15, 2, 60}, {7, 17, 1, 60}, {8, 18, 2, 60}, {9, 19, 1, 60}, {10, 10, 1, 61}, {11, 11, 3, 61}, {12, 12, 3, 61}, {13, 13, 3, 61}, {14, 14, 6, 61}, {15, 15, 3, 61}, {16, 16, 1, 61}, {17, 17, 3, 61}, {18, 18, 3, 61}, {19, 19, 1, 61}, {20, 20, 1, 62}, {21, 21, 4, 62}, {22, 22, 4, 62}, {23, 23, 6, 62}, {24, 24, 12, 62}, {25, 25, 6, 62}, {26, 26, 4, 62}, {27, 27, 12, 62}, {28, 28, 12, 62}, {29, 29, 4, 62}, {30, 30, 1, 62}, {31, 31, 4, 62}, {32, 32, 6, 62}, {33, 33, 4, 62}, {34, 34, 1, 62}, {0, 35, 1, 63}, {1, 36, 1, 64}, {2, 37, 1, 64}, {3, 38, 1, 64}, {4, 39, 1, 65}, {5, 40, 2, 65}, {6, 41, 2, 65}, {7, 42, 1, 65}, {8, 43, 2, 65}, {9, 44, 1, 65}, {0, 45, 1, 66}, {35, 35, 1, 67}, {0, 46, 1, 68}, {0, 47, 1, 69}, {0, 57, 1, 70}, {0, 61, 1, 71}, {1, 48, 1, 72}, {2, 49, 1, 72}, {3, 50, 1, 72}, {1, 58, 1, 73}, {2, 59, 1, 73}, {3, 60, 1, 73}, {4, 51, 1, 74}, {5, 52, 2, 74}, {6, 53, 2, 74}, {7, 54, 1, 74}, {8, 55, 2, 74}, {9, 56, 1, 74}, {0, 63, 1, 75}, {0, 64, 1, 76}, {35, 47, 1, 77}, {47, 47, 1, 78}, {0, 68, 1, 79}, {0, 69, 1, 80}, {0, 70, 1, 81}, {0, 72, 1, 82}, {0, 75, 1, 83}}
alpha_scalar_moments = 29
alpha_moment_mapping = {0, 35, 45, 46, 47, 57, 61, 62, 63, 64, 65, 66, 67, 68, 69, 70, 71, 72, 73, 74, 75, 76, 77, 79, 80, 81, 82, 78, 83}
species_coeffs = {-5.302227521995071e+00, -1.577413131482504e+01, -3.900336216335490e+00}
moment_coeffs = {3.390183121443334e-01, 2.985656454710954e+00, 1.319393317680913e+00, -1.415133233453061e+00, 1.273368663233439e+00, 2.961338303993076e+00, -1.341706019191424e+00, 3.895749341305352e+00, 3.890932999982577e+00, -1.560217931038811e+00, 3.349178300752835e+00, 1.272307483004995e+00, 7.628701003709581e+00, 4.683196716952096e-01, -2.359459558480084e-01, -1.536986886183682e+00, 1.177511214736657e+00, 4.839908609131583e+00, -3.256629381585914e+00, 3.396980102910279e+00, -4.964961231274665e+00, 1.162388301462426e+01, 9.571596047477486e+00, 2.359865099992934e+00, 6.687322672497197e-01, -8.584680222742728e+00, -1.291593676190588e+00, 1.232097782704927e+01, 1.663387681739123e+00}